{
  "type": "NeuralNetwork",
  "sizes": [
    8,
    4,
    1
  ],
  "layers": [
    {
      "weights": [],
      "biases": []
    },
    {
      "weights": [
        [
          -0.37777483463287354,
          0.9682201147079468,
          1.1632983684539795,
          0.403016597032547,
          -0.06706329435110092,
          0.4671007990837097,
          1.9528402090072632,
          1.0839407444000244
        ],
        [
          2.8269455432891846,
          -1.1180901527404785,
          -1.583853840827942,
          -0.033238571137189865,
          -0.03286677971482277,
          0.27385619282722473,
          -2.608484983444214,
          2.6967427730560303
        ],
        [
          12.770895957946777,
          -1.2710047960281372,
          -1.3638408184051514,
          0.4412776529788971,
          -0.13095256686210632,
          0.5274295806884766,
          -5.0813398361206055,
          3.0653464794158936
        ],
        [
          1.8377684354782104,
          -1.200817584991455,
          -2.622912883758545,
          0.2842104732990265,
          0.16438351571559906,
          -0.09524234384298325,
          -1.3473869562149048,
          1.7476177215576172
        ]
      ],
      "biases": [
        1.035426139831543,
        -0.8713827729225159,
        -0.7595022916793823,
        -0.6873355507850647
      ]
    },
    {
      "weights": [
        [
          -0.5755429863929749,
          6.970112323760986,
          10.676271438598633,
          2.8720338344573975
        ]
      ],
      "biases": [
        -0.25614088773727417
      ]
    }
  ],
  "inputLookup": null,
  "inputLookupLength": 0,
  "outputLookup": null,
  "outputLookupLength": 0,
  "options": {
    "inputSize": 0,
    "outputSize": 0,
    "binaryThresh": 0.5
  },
  "trainOpts": {
    "activation": "sigmoid",
    "iterations": 20000,
    "errorThresh": 0.005,
    "log": true,
    "logPeriod": 1000,
    "leakyReluAlpha": 0.01,
    "learningRate": 0.1,
    "momentum": 0.1,
    "callbackPeriod": 10,
    "timeout": "Infinity",
    "beta1": 0.9,
    "beta2": 0.999,
    "epsilon": 1e-8
  }
}