{
  "type": "NeuralNetwork",
  "sizes": [
    8,
    4,
    1
  ],
  "layers": [
    {
      "weights": [],
      "biases": []
    },
    {
      "weights": [
        [
          -0.7971726059913635,
          1.2127208709716797,
          0.24428364634513855,
          0.7159141898155212,
          -0.21497152745723724,
          -0.07340572774410248,
          1.3168097734451294,
          -5.562700271606445
        ],
        [
          -0.805351197719574,
          -2.1607887744903564,
          0.7982301712036133,
          1.1690123081207275,
          -0.34055095911026,
          -0.37108081579208374,
          -0.07299397140741348,
          -9.148176193237305
        ],
        [
          0.33644434809684753,
          -0.7074815034866333,
          -0.4427093267440796,
          0.14603646099567413,
          -0.0387224480509758,
          -0.058043140918016434,
          -13.59755802154541,
          -7.8250813484191895
        ],
        [
          0.7775011658668518,
          1.9759986400604248,
          0.08918396383523941,
          1.1004267930984497,
          0.3401430547237396,
          0.2018466293811798,
          0.6045602560043335,
          2.569563865661621
        ]
      ],
      "biases": [
        4.773894309997559,
        -4.777815341949463,
        -0.023550014942884445,
        -4.598236083984375
      ]
    },
    {
      "weights": [
        [
          -2.0433433055877686,
          -4.470717430114746,
          1.3288319110870361,
          -6.275791645050049
        ]
      ],
      "biases": [
        6.95543909072876
      ]
    }
  ],
  "inputLookup": null,
  "inputLookupLength": 0,
  "outputLookup": null,
  "outputLookupLength": 0,
  "options": {
    "inputSize": 0,
    "outputSize": 0,
    "binaryThresh": 0.5
  },
  "trainOpts": {
    "activation": "sigmoid",
    "iterations": 50000,
    "errorThresh": 0.005,
    "log": true,
    "logPeriod": 1000,
    "leakyReluAlpha": 0.01,
    "learningRate": 0.1,
    "momentum": 0.1,
    "callbackPeriod": 10,
    "timeout": "Infinity",
    "beta1": 0.9,
    "beta2": 0.999,
    "epsilon": 1e-8
  }
}