{
  "type": "NeuralNetwork",
  "sizes": [
    8,
    4,
    1
  ],
  "layers": [
    {
      "weights": [],
      "biases": []
    },
    {
      "weights": [
        [
          0.8723189830780029,
          -0.28635987639427185,
          5.606326103210449,
          -0.34782910346984863,
          -0.14766819775104523,
          -0.05584539473056793,
          -2.5032856464385986,
          -1.0936357975006104
        ],
        [
          -0.7896905541419983,
          -1.5189374685287476,
          7.5540080070495605,
          -0.5686149001121521,
          -0.02119291014969349,
          -0.19898463785648346,
          7.393878936767578,
          -1.7864083051681519
        ],
        [
          0.6576454639434814,
          0.41675063967704773,
          -4.8127970695495605,
          0.40221333503723145,
          -0.1497717797756195,
          0.2080058753490448,
          -5.432841777801514,
          1.419681429862976
        ],
        [
          1.0033767223358154,
          4.485500812530518,
          -6.157896518707275,
          -0.00892702303826809,
          0.8085142970085144,
          0.2730831503868103,
          -2.456193685531616,
          3.7790565490722656
        ]
      ],
      "biases": [
        2.5431995391845703,
        -0.5514529943466187,
        0.5252122282981873,
        -0.7109556198120117
      ]
    },
    {
      "weights": [
        [
          -14.834139823913574,
          -8.719019889831543,
          9.261517524719238,
          11.486119270324707
        ]
      ],
      "biases": [
        7.661611557006836
      ]
    }
  ],
  "inputLookup": null,
  "inputLookupLength": 0,
  "outputLookup": null,
  "outputLookupLength": 0,
  "options": {
    "inputSize": 0,
    "outputSize": 0,
    "binaryThresh": 0.5
  },
  "trainOpts": {
    "activation": "sigmoid",
    "iterations": 100000,
    "errorThresh": 0.005,
    "log": true,
    "logPeriod": 1000,
    "leakyReluAlpha": 0.01,
    "learningRate": 0.1,
    "momentum": 0.1,
    "callbackPeriod": 10,
    "timeout": "Infinity",
    "beta1": 0.9,
    "beta2": 0.999,
    "epsilon": 1e-8
  }
}