{
  "type": "NeuralNetwork",
  "sizes": [
    8,
    4,
    1
  ],
  "layers": [
    {
      "weights": [],
      "biases": []
    },
    {
      "weights": [
        [
          -1.2175837755203247,
          -0.45541998744010925,
          -0.08503229171037674,
          0.3043460249900818,
          -2.2531166076660156,
          3.64547061920166,
          -3.461256504058838,
          3.0909104347229004
        ],
        [
          4.280808448791504,
          1.5961995124816895,
          0.6780009269714355,
          -6.743424892425537,
          3.0103087425231934,
          -0.5446200370788574,
          1.5303043127059937,
          0.9939271807670593
        ],
        [
          0.24535293877124786,
          -2.0886576175689697,
          -1.5975322723388672,
          -0.6271365880966187,
          -0.2703739404678345,
          -0.4940747618675232,
          -0.7844682335853577,
          -1.4814773797988892
        ],
        [
          1.4693071842193604,
          -0.49438440799713135,
          0.05231418460607529,
          -1.3422002792358398,
          0.4454313814640045,
          -1.1858010292053223,
          2.6876089572906494,
          -2.6213200092315674
        ]
      ],
      "biases": [
        -3.705306053161621,
        -2.4958717823028564,
        -0.1374208629131317,
        -0.5392635464668274
      ]
    },
    {
      "weights": [
        [
          8.08788776397705,
          -5.387092590332031,
          1.1619784832000732,
          3.871443033218384
        ]
      ],
      "biases": [
        -0.6366443037986755
      ]
    }
  ],
  "inputLookup": null,
  "inputLookupLength": 0,
  "outputLookup": null,
  "outputLookupLength": 0,
  "options": {
    "inputSize": 0,
    "outputSize": 0,
    "binaryThresh": 0.5
  },
  "trainOpts": {
    "activation": "sigmoid",
    "iterations": 50000,
    "errorThresh": 0.005,
    "log": true,
    "logPeriod": 1000,
    "leakyReluAlpha": 0.01,
    "learningRate": 0.1,
    "momentum": 0.1,
    "callbackPeriod": 10,
    "timeout": "Infinity",
    "beta1": 0.9,
    "beta2": 0.999,
    "epsilon": 1e-8
  }
}