{
  "type": "NeuralNetwork",
  "sizes": [
    8,
    4,
    1
  ],
  "layers": [
    {
      "weights": [],
      "biases": []
    },
    {
      "weights": [
        [
          -5.669883728027344,
          -1.6774548292160034,
          11.6234769821167,
          -7.027555465698242,
          -0.011713238433003426,
          -1.7044848203659058,
          -12.106902122497559,
          -2.261681318283081
        ],
        [
          1.5299129486083984,
          -1.2739399671554565,
          6.293048858642578,
          -2.5764362812042236,
          0.046872079372406006,
          0.9573830366134644,
          7.615013122558594,
          -1.3076906204223633
        ],
        [
          2.531456232070923,
          6.521124362945557,
          -0.8631470799446106,
          4.5178632736206055,
          -0.652758777141571,
          0.2739507257938385,
          4.630053997039795,
          5.194381237030029
        ],
        [
          -0.8944391012191772,
          0.7411941289901733,
          7.620458126068115,
          -0.6101067662239075,
          1.6370362043380737,
          0.574944019317627,
          1.7125755548477173,
          -5.6788129806518555
        ]
      ],
      "biases": [
        13.246918678283691,
        -14.599931716918945,
        -6.387690544128418,
        0.33377888798713684
      ]
    },
    {
      "weights": [
        [
          3.998058319091797,
          14.704364776611328,
          -5.922929286956787,
          -18.040672302246094
        ]
      ],
      "biases": [
        6.68961763381958
      ]
    }
  ],
  "inputLookup": null,
  "inputLookupLength": 0,
  "outputLookup": null,
  "outputLookupLength": 0,
  "options": {
    "inputSize": 0,
    "outputSize": 0,
    "binaryThresh": 0.5
  },
  "trainOpts": {
    "activation": "sigmoid",
    "iterations": 100000,
    "errorThresh": 0.005,
    "log": true,
    "logPeriod": 1000,
    "leakyReluAlpha": 0.01,
    "learningRate": 0.01,
    "momentum": 0.1,
    "callbackPeriod": 10,
    "timeout": "Infinity",
    "beta1": 0.9,
    "beta2": 0.999,
    "epsilon": 1e-8
  }
}