{
  "type": "NeuralNetwork",
  "sizes": [
    8,
    4,
    1
  ],
  "layers": [
    {
      "weights": [],
      "biases": []
    },
    {
      "weights": [
        [
          1.1158162355422974,
          12.79687786102295,
          6.445849895477295,
          -5.942205429077148,
          -3.4379892349243164,
          0.5949000716209412,
          11.106204986572266,
          5.247542858123779
        ],
        [
          -4.888609409332275,
          -5.845180988311768,
          -12.751696586608887,
          -3.45693302154541,
          3.5650904178619385,
          -3.7927043437957764,
          13.226527214050293,
          6.2137627601623535
        ],
        [
          -6.861072540283203,
          -12.902667045593262,
          1.483133316040039,
          -6.527715682983398,
          3.0804240703582764,
          0.6456403732299805,
          -2.784463882446289,
          -2.2668745517730713
        ],
        [
          -0.5905630588531494,
          0.0964685007929802,
          0.3828622102737427,
          -1.032904028892517,
          3.0590434074401855,
          8.665851593017578,
          -2.880449056625366,
          5.447422027587891
        ]
      ],
      "biases": [
        -21.283119201660156,
        -22.37175750732422,
        27.831653594970703,
        -4.857760429382324
      ]
    },
    {
      "weights": [
        [
          1.370590090751648,
          -1.9021087884902954,
          2.5455360412597656,
          4.274608612060547
        ]
      ],
      "biases": [
        -2.1693239212036133
      ]
    }
  ],
  "inputLookup": null,
  "inputLookupLength": 0,
  "outputLookup": null,
  "outputLookupLength": 0,
  "options": {
    "inputSize": 0,
    "outputSize": 0,
    "binaryThresh": 0.5
  },
  "trainOpts": {
    "activation": "sigmoid",
    "iterations": 99999,
    "errorThresh": 0.005,
    "log": true,
    "logPeriod": 1000,
    "leakyReluAlpha": 0.01,
    "learningRate": 0.01,
    "momentum": 0.1,
    "callbackPeriod": 10,
    "timeout": "Infinity",
    "beta1": 0.9,
    "beta2": 0.999,
    "epsilon": 1e-8
  }
}