{
  "type": "NeuralNetwork",
  "sizes": [
    8,
    4,
    1
  ],
  "layers": [
    {
      "weights": [],
      "biases": []
    },
    {
      "weights": [
        [
          4.132282257080078,
          1.551198124885559,
          0.09856351464986801,
          4.925473213195801,
          -1.0856398344039917,
          -0.27819371223449707,
          -1.575749397277832,
          -21.488603591918945
        ],
        [
          3.350050687789917,
          1.09446382522583,
          -12.56122875213623,
          25.325958251953125,
          1.4290015697479248,
          -2.014258861541748,
          10.371686935424805,
          -11.263947486877441
        ],
        [
          -4.799519062042236,
          -0.4396774172782898,
          -9.66641616821289,
          16.23295021057129,
          -0.7198830246925354,
          -0.8448952436447144,
          -6.283735275268555,
          1.6478673219680786
        ],
        [
          -0.15038934350013733,
          -0.12649333477020264,
          -0.18910826742649078,
          -0.16918888688087463,
          0.39915740489959717,
          -1.6758922338485718,
          0.3346189558506012,
          -1.4520243406295776
        ]
      ],
      "biases": [
        30.31106948852539,
        1.8815381526947021,
        -14.224557876586914,
        32.90450668334961
      ]
    },
    {
      "weights": [
        [
          3.798788547515869,
          -1.168415904045105,
          1.6780496835708618,
          -2.9363677501678467
        ]
      ],
      "biases": [
        0.7650765180587769
      ]
    }
  ],
  "inputLookup": null,
  "inputLookupLength": 0,
  "outputLookup": null,
  "outputLookupLength": 0,
  "options": {
    "inputSize": 0,
    "outputSize": 0,
    "binaryThresh": 0.5
  },
  "trainOpts": {
    "activation": "sigmoid",
    "iterations": 100000,
    "errorThresh": 0.005,
    "log": true,
    "logPeriod": 1000,
    "leakyReluAlpha": 0.01,
    "learningRate": 0.01,
    "momentum": 0.1,
    "callbackPeriod": 10,
    "timeout": "Infinity",
    "beta1": 0.9,
    "beta2": 0.999,
    "epsilon": 1e-8
  }
}