{
  "type": "NeuralNetwork",
  "sizes": [
    8,
    4,
    1
  ],
  "layers": [
    {
      "weights": [],
      "biases": []
    },
    {
      "weights": [
        [
          -1.601542592048645,
          0.280438095331192,
          -0.3370862603187561,
          5.825273036956787,
          -0.10501962155103683,
          0.19559019804000854,
          -2.3855350017547607,
          -3.8312666416168213
        ],
        [
          -82.07138061523438,
          -1.832046389579773,
          3.3260951042175293,
          -0.04208007827401161,
          0.2720280885696411,
          -0.5344769358634949,
          23.249326705932617,
          -2.0852396488189697
        ],
        [
          8.754728317260742,
          -1.863292932510376,
          0.6677490472793579,
          -3.4426403045654297,
          0.70823073387146,
          -0.07435189932584763,
          6.056069850921631,
          -0.02483324147760868
        ],
        [
          16.52118492126465,
          1.4305920600891113,
          -0.8690280914306641,
          -0.46929383277893066,
          1.4635859727859497,
          0.38055717945098877,
          4.6355791091918945,
          0.6447180509567261
        ]
      ],
      "biases": [
        -2.0559568405151367,
        3.6629557609558105,
        6.309120178222656,
        -4.285314083099365
      ]
    },
    {
      "weights": [
        [
          10.071906089782715,
          -12.097213745117188,
          -8.988085746765137,
          12.723011016845703
        ]
      ],
      "biases": [
        5.716348171234131
      ]
    }
  ],
  "inputLookup": null,
  "inputLookupLength": 0,
  "outputLookup": null,
  "outputLookupLength": 0,
  "options": {
    "inputSize": 0,
    "outputSize": 0,
    "binaryThresh": 0.5
  },
  "trainOpts": {
    "activation": "sigmoid",
    "iterations": 20000,
    "errorThresh": 0.005,
    "log": true,
    "logPeriod": 1000,
    "leakyReluAlpha": 0.01,
    "learningRate": 0.1,
    "momentum": 0.1,
    "callbackPeriod": 10,
    "timeout": "Infinity",
    "beta1": 0.9,
    "beta2": 0.999,
    "epsilon": 1e-8
  }
}