{
  "type": "NeuralNetwork",
  "sizes": [
    8,
    4,
    1
  ],
  "layers": [
    {
      "weights": [],
      "biases": []
    },
    {
      "weights": [
        [
          3.0864768028259277,
          -0.06039826571941376,
          -0.05234052240848541,
          -27.38054847717285,
          -2.4366087913513184,
          0.17483830451965332,
          -1.211562991142273,
          11.671467781066895
        ],
        [
          -9.243001937866211,
          1.3681546449661255,
          0.08342165499925613,
          -0.9631954431533813,
          1.5928927659988403,
          0.2248130887746811,
          0.43387019634246826,
          9.905289649963379
        ],
        [
          -0.9309054613113403,
          1.0113621950149536,
          -0.14368416368961334,
          1.2657787799835205,
          3.9632420539855957,
          7.009668827056885,
          -8.243751525878906,
          6.65341854095459
        ],
        [
          -21.889022827148438,
          -0.5073065161705017,
          -29.83612632751465,
          -5.720219612121582,
          0.5533548593521118,
          -7.584943771362305,
          23.15997886657715,
          -14.883694648742676
        ]
      ],
      "biases": [
        23.031034469604492,
        -15.662843704223633,
        -10.611421585083008,
        7.795075416564941
      ]
    },
    {
      "weights": [
        [
          1.5113606452941895,
          -3.5841009616851807,
          3.551908016204834,
          -2.030168294906616
        ]
      ],
      "biases": [
        0.3051292300224304
      ]
    }
  ],
  "inputLookup": null,
  "inputLookupLength": 0,
  "outputLookup": null,
  "outputLookupLength": 0,
  "options": {
    "inputSize": 0,
    "outputSize": 0,
    "binaryThresh": 0.5
  },
  "trainOpts": {
    "activation": "sigmoid",
    "iterations": 100000,
    "errorThresh": 0.005,
    "log": true,
    "logPeriod": 1000,
    "leakyReluAlpha": 0.01,
    "learningRate": 0.01,
    "momentum": 0.1,
    "callbackPeriod": 10,
    "timeout": "Infinity",
    "beta1": 0.9,
    "beta2": 0.999,
    "epsilon": 1e-8
  }
}