{
  "type": "NeuralNetwork",
  "sizes": [
    8,
    4,
    1
  ],
  "layers": [
    {
      "weights": [],
      "biases": []
    },
    {
      "weights": [
        [
          0.04303857684135437,
          -0.29092898964881897,
          0.09112821519374847,
          0.7491348385810852,
          1.3925522565841675,
          -11.31738567352295,
          1.1145445108413696,
          -0.9640142917633057
        ],
        [
          -16.605772018432617,
          -7.7733540534973145,
          -5.32566499710083,
          -16.31728744506836,
          -2.3274085521698,
          -0.7465141415596008,
          -7.769793510437012,
          -10.422492027282715
        ],
        [
          -2.6844708919525146,
          1.1852943897247314,
          1.3332825899124146,
          4.587244033813477,
          -2.429476737976074,
          -1.6732896566390991,
          2.3083856105804443,
          0.15547959506511688
        ],
        [
          2.8666062355041504,
          0.1201939508318901,
          -14.840096473693848,
          6.485898017883301,
          -2.1114249229431152,
          -17.067119598388672,
          15.006407737731934,
          -2.2423489093780518
        ]
      ],
      "biases": [
        -24.892406463623047,
        12.202911376953125,
        16.48015785217285,
        -8.556392669677734
      ]
    },
    {
      "weights": [
        [
          -2.9644432067871094,
          -16.458824157714844,
          -6.229948043823242,
          -1.8984646797180176
        ]
      ],
      "biases": [
        8.284504890441895
      ]
    }
  ],
  "inputLookup": null,
  "inputLookupLength": 0,
  "outputLookup": null,
  "outputLookupLength": 0,
  "options": {
    "inputSize": 0,
    "outputSize": 0,
    "binaryThresh": 0.5
  },
  "trainOpts": {
    "activation": "sigmoid",
    "iterations": 99999,
    "errorThresh": 0.005,
    "log": true,
    "logPeriod": 1000,
    "leakyReluAlpha": 0.01,
    "learningRate": 0.01,
    "momentum": 0.1,
    "callbackPeriod": 10,
    "timeout": "Infinity",
    "beta1": 0.9,
    "beta2": 0.999,
    "epsilon": 1e-8
  }
}