{
  "type": "NeuralNetwork",
  "sizes": [
    8,
    4,
    1
  ],
  "layers": [
    {
      "weights": [],
      "biases": []
    },
    {
      "weights": [
        [
          2.204501152038574,
          0.5546309947967529,
          -2.8330864906311035,
          0.6347194910049438,
          0.21222658455371857,
          0.1573762446641922,
          -1.770836591720581,
          2.042294502258301
        ],
        [
          0.8764995336532593,
          0.4158378839492798,
          -1.9010742902755737,
          0.42103487253189087,
          0.058149226009845734,
          0.11012724041938782,
          -11.477662086486816,
          2.474085569381714
        ],
        [
          -0.956119954586029,
          -0.2294468730688095,
          0.9047797918319702,
          -0.5032052397727966,
          -0.015414823777973652,
          -0.12971249222755432,
          2.3900415897369385,
          -0.8800657987594604
        ],
        [
          -0.863198459148407,
          -0.18186123669147491,
          1.7169617414474487,
          -0.3824613392353058,
          -0.1935911774635315,
          -0.011914629489183426,
          9.328507423400879,
          -1.8873350620269775
        ]
      ],
      "biases": [
        -0.6642370820045471,
        -0.24894613027572632,
        0.5299328565597534,
        0.1662057489156723
      ]
    },
    {
      "weights": [
        [
          13.438377380371094,
          -0.7346454858779907,
          -6.469122409820557,
          1.1055476665496826
        ]
      ],
      "biases": [
        3.437621593475342
      ]
    }
  ],
  "inputLookup": null,
  "inputLookupLength": 0,
  "outputLookup": null,
  "outputLookupLength": 0,
  "options": {
    "inputSize": 0,
    "outputSize": 0,
    "binaryThresh": 0.5
  },
  "trainOpts": {
    "activation": "sigmoid",
    "iterations": 20000,
    "errorThresh": 0.005,
    "log": true,
    "logPeriod": 1000,
    "leakyReluAlpha": 0.01,
    "learningRate": 0.1,
    "momentum": 0.1,
    "callbackPeriod": 10,
    "timeout": "Infinity",
    "beta1": 0.9,
    "beta2": 0.999,
    "epsilon": 1e-8
  }
}