{
  "type": "NeuralNetwork",
  "sizes": [
    8,
    4,
    1
  ],
  "layers": [
    {
      "weights": [],
      "biases": []
    },
    {
      "weights": [
        [
          -4.218856334686279,
          24.438119888305664,
          11.0287446975708,
          5.0026092529296875,
          -7.966081619262695,
          -17.14969825744629,
          -11.572782516479492,
          -12.834260940551758
        ],
        [
          9.830400466918945,
          -4.003995895385742,
          4.568458080291748,
          -7.533885955810547,
          -1.4368505477905273,
          0.25807949900627136,
          -4.673612117767334,
          -9.2947998046875
        ],
        [
          3.0156846046447754,
          4.85851526260376,
          2.6910033226013184,
          -1.2256618738174438,
          0.6686537265777588,
          0.5853620171546936,
          4.504072189331055,
          1.4469521045684814
        ],
        [
          -5.263228893280029,
          -10.732462882995605,
          -10.365899085998535,
          -3.342073678970337,
          -1.8594332933425903,
          -0.08056994527578354,
          -11.490128517150879,
          -1.1050405502319336
        ]
      ],
      "biases": [
        11.896903038024902,
        0.6509711742401123,
        2.6555261611938477,
        5.383068084716797
      ]
    },
    {
      "weights": [
        [
          2.2257418632507324,
          0.8414487838745117,
          -3.049753189086914,
          8.526276588439941
        ]
      ],
      "biases": [
        2.282592296600342
      ]
    }
  ],
  "inputLookup": null,
  "inputLookupLength": 0,
  "outputLookup": null,
  "outputLookupLength": 0,
  "options": {
    "inputSize": 0,
    "outputSize": 0,
    "binaryThresh": 0.5
  },
  "trainOpts": {
    "activation": "sigmoid",
    "iterations": 100000,
    "errorThresh": 0.005,
    "log": true,
    "logPeriod": 1000,
    "leakyReluAlpha": 0.01,
    "learningRate": 0.01,
    "momentum": 0.1,
    "callbackPeriod": 10,
    "timeout": "Infinity",
    "beta1": 0.9,
    "beta2": 0.999,
    "epsilon": 1e-8
  }
}