{
  "type": "NeuralNetwork",
  "sizes": [
    8,
    4,
    1
  ],
  "layers": [
    {
      "weights": [],
      "biases": []
    },
    {
      "weights": [
        [
          -1.4957565069198608,
          -1.0381956100463867,
          0.6911807656288147,
          -0.7243313193321228,
          0.28225165605545044,
          11.762889862060547,
          -1.2126647233963013,
          1.7961094379425049
        ],
        [
          -2.7055184841156006,
          -3.191234588623047,
          0.09250631928443909,
          0.029795663431286812,
          -0.5845566987991333,
          -0.9000698328018188,
          -1.3601841926574707,
          -0.5976463556289673
        ],
        [
          2.2455921173095703,
          2.6070680618286133,
          -0.29668718576431274,
          -0.08090006560087204,
          1.0183205604553223,
          0.7099242210388184,
          -2.259840726852417,
          1.067639946937561
        ],
        [
          -2.928431749343872,
          -5.448062896728516,
          -0.0633556917309761,
          0.04441172257065773,
          -0.6751131415367126,
          -1.100059986114502,
          2.764660120010376,
          -0.8095244765281677
        ]
      ],
      "biases": [
        -3.3855528831481934,
        0.15992678701877594,
        -1.7274528741836548,
        1.4922223091125488
      ]
    },
    {
      "weights": [
        [
          2.443460464477539,
          -1.5954984426498413,
          1.4091967344284058,
          -1.2537981271743774
        ]
      ],
      "biases": [
        -1.6692252159118652
      ]
    }
  ],
  "inputLookup": null,
  "inputLookupLength": 0,
  "outputLookup": null,
  "outputLookupLength": 0,
  "options": {
    "inputSize": 0,
    "outputSize": 0,
    "binaryThresh": 0.5
  },
  "trainOpts": {
    "activation": "sigmoid",
    "iterations": 80000,
    "errorThresh": 0.005,
    "log": true,
    "logPeriod": 1000,
    "leakyReluAlpha": 0.01,
    "learningRate": 0.1,
    "momentum": 0.1,
    "callbackPeriod": 10,
    "timeout": "Infinity",
    "beta1": 0.9,
    "beta2": 0.999,
    "epsilon": 1e-8
  }
}