{
  "type": "NeuralNetwork",
  "sizes": [
    8,
    4,
    1
  ],
  "layers": [
    {
      "weights": [],
      "biases": []
    },
    {
      "weights": [
        [
          0.24285607039928436,
          1.2227096557617188,
          4.7959465980529785,
          -0.05857988819479942,
          0.23101995885372162,
          -0.42327600717544556,
          4.792915344238281,
          -1.7043579816818237
        ],
        [
          0.2707303464412689,
          -1.1594451665878296,
          -9.935901641845703,
          -0.8549118041992188,
          0.3592594563961029,
          0.764417827129364,
          -2.6458821296691895,
          7.168861389160156
        ],
        [
          -1.4163838624954224,
          -0.871350884437561,
          -2.752910852432251,
          -1.1204222440719604,
          0.1923757791519165,
          0.10999134182929993,
          -0.8411759734153748,
          0.0011568502523005009
        ],
        [
          0.23517759144306183,
          1.2109675407409668,
          4.679604530334473,
          -0.16519330441951752,
          0.2148401439189911,
          -0.14971792697906494,
          4.688200950622559,
          -1.7266467809677124
        ]
      ],
      "biases": [
        0.03985455259680748,
        -0.7168282866477966,
        -2.0095725059509277,
        0.16593095660209656
      ]
    },
    {
      "weights": [
        [
          -3.3611111640930176,
          12.650551795959473,
          6.359966278076172,
          -3.2383499145507812
        ]
      ],
      "biases": [
        5.192445278167725
      ]
    }
  ],
  "inputLookup": null,
  "inputLookupLength": 0,
  "outputLookup": null,
  "outputLookupLength": 0,
  "options": {
    "inputSize": 0,
    "outputSize": 0,
    "binaryThresh": 0.5
  },
  "trainOpts": {
    "activation": "sigmoid",
    "iterations": 100000,
    "errorThresh": 0.005,
    "log": true,
    "logPeriod": 1000,
    "leakyReluAlpha": 0.01,
    "learningRate": 0.01,
    "momentum": 0.1,
    "callbackPeriod": 10,
    "timeout": "Infinity",
    "beta1": 0.9,
    "beta2": 0.999,
    "epsilon": 1e-8
  }
}