{
  "type": "NeuralNetwork",
  "sizes": [
    8,
    4,
    1
  ],
  "layers": [
    {
      "weights": [],
      "biases": []
    },
    {
      "weights": [
        [
          -0.9203954339027405,
          -0.7984437942504883,
          0.7101975083351135,
          -0.1339249461889267,
          2.9034483432769775,
          -2.8619723320007324,
          1.6478248834609985,
          -0.3869233727455139
        ],
        [
          1.112152099609375,
          -2.6114182472229004,
          4.198971748352051,
          -0.15391305088996887,
          -0.602724552154541,
          3.9201619625091553,
          0.13402101397514343,
          1.0986160039901733
        ],
        [
          -0.6057801842689514,
          0.06343533843755722,
          3.1065831184387207,
          -0.43122896552085876,
          -0.25829553604125977,
          0.4639318883419037,
          -1.6681984663009644,
          -0.5279568433761597
        ],
        [
          2.587144613265991,
          0.11768706887960434,
          -1.1962318420410156,
          0.04502648860216141,
          2.440430164337158,
          -3.9216058254241943,
          1.6997787952423096,
          0.7958265542984009
        ]
      ],
      "biases": [
        10.567697525024414,
        -13.786811828613281,
        -4.032299518585205,
        -14.372801780700684
      ]
    },
    {
      "weights": [
        [
          -3.909529685974121,
          2.361978769302368,
          0.9704214334487915,
          -3.7544338703155518
        ]
      ],
      "biases": [
        1.9887040853500366
      ]
    }
  ],
  "inputLookup": null,
  "inputLookupLength": 0,
  "outputLookup": null,
  "outputLookupLength": 0,
  "options": {
    "inputSize": 0,
    "outputSize": 0,
    "binaryThresh": 0.5
  },
  "trainOpts": {
    "activation": "sigmoid",
    "iterations": 30000,
    "errorThresh": 0.005,
    "log": true,
    "logPeriod": 1000,
    "leakyReluAlpha": 0.01,
    "learningRate": 0.01,
    "momentum": 0.1,
    "callbackPeriod": 10,
    "timeout": "Infinity",
    "beta1": 0.9,
    "beta2": 0.999,
    "epsilon": 1e-8
  }
}