{
  "type": "NeuralNetwork",
  "sizes": [
    8,
    4,
    1
  ],
  "layers": [
    {
      "weights": [],
      "biases": []
    },
    {
      "weights": [
        [
          -1.8150660991668701,
          -1.6036111116409302,
          -0.9105259776115417,
          -4.750807762145996,
          0.7041926980018616,
          5.268732070922852,
          -1.5064481496810913,
          1.9523690938949585
        ],
        [
          -4.201215744018555,
          1.0199609994888306,
          -0.4080450236797333,
          -3.193182945251465,
          -0.37088778614997864,
          2.3759918212890625,
          -0.923011064529419,
          1.7830862998962402
        ],
        [
          -4.873551845550537,
          1.2540990114212036,
          -0.5334508419036865,
          -3.9021096229553223,
          -0.6086262464523315,
          2.8386478424072266,
          -1.1008332967758179,
          2.1385128498077393
        ],
        [
          -0.5293073654174805,
          -2.8558497428894043,
          0.24920958280563354,
          2.716989278793335,
          -0.10449783504009247,
          -0.3360624313354492,
          1.5425251722335815,
          -1.158874273300171
        ]
      ],
      "biases": [
        3.312721014022827,
        -0.69923996925354,
        -0.7946462035179138,
        1.5973947048187256
      ]
    },
    {
      "weights": [
        [
          0.9120532870292664,
          0.16347146034240723,
          1.988828420639038,
          -1.8826320171356201
        ]
      ],
      "biases": [
        -0.7506352663040161
      ]
    }
  ],
  "inputLookup": null,
  "inputLookupLength": 0,
  "outputLookup": null,
  "outputLookupLength": 0,
  "options": {
    "inputSize": 0,
    "outputSize": 0,
    "binaryThresh": 0.5
  },
  "trainOpts": {
    "activation": "sigmoid",
    "iterations": 80000,
    "errorThresh": 0.005,
    "log": true,
    "logPeriod": 1000,
    "leakyReluAlpha": 0.01,
    "learningRate": 0.1,
    "momentum": 0.1,
    "callbackPeriod": 10,
    "timeout": "Infinity",
    "beta1": 0.9,
    "beta2": 0.999,
    "epsilon": 1e-8
  }
}