{
  "type": "NeuralNetwork",
  "sizes": [
    8,
    4,
    1
  ],
  "layers": [
    {
      "weights": [],
      "biases": []
    },
    {
      "weights": [
        [
          1.0732554197311401,
          4.161828517913818,
          -1.9242534637451172,
          -6.967401027679443,
          8.059799194335938,
          -0.682590126991272,
          -1.0864306688308716,
          -14.200556755065918
        ],
        [
          -6.200721263885498,
          16.856382369995117,
          11.184576034545898,
          -1.344724178314209,
          -4.168785572052002,
          -8.301237106323242,
          -10.37648868560791,
          6.053401947021484
        ],
        [
          -3.5342562198638916,
          8.782833099365234,
          -0.9874132871627808,
          14.958709716796875,
          1.3537561893463135,
          -0.08133561164140701,
          3.839931011199951,
          12.459391593933105
        ],
        [
          3.633793592453003,
          -2.3367598056793213,
          -23.831727981567383,
          -7.139323711395264,
          3.223742723464966,
          4.728049278259277,
          1.6499000787734985,
          -0.28891614079475403
        ]
      ],
      "biases": [
        33.99747848510742,
        -1.990977168083191,
        -10.169509887695312,
        -11.657912254333496
      ]
    },
    {
      "weights": [
        [
          2.930001735687256,
          18.34493064880371,
          -11.174147605895996,
          15.337120056152344
        ]
      ],
      "biases": [
        -6.672316551208496
      ]
    }
  ],
  "inputLookup": null,
  "inputLookupLength": 0,
  "outputLookup": null,
  "outputLookupLength": 0,
  "options": {
    "inputSize": 0,
    "outputSize": 0,
    "binaryThresh": 0.5
  },
  "trainOpts": {
    "activation": "sigmoid",
    "iterations": 100000,
    "errorThresh": 0.005,
    "log": true,
    "logPeriod": 1000,
    "leakyReluAlpha": 0.01,
    "learningRate": 0.01,
    "momentum": 0.1,
    "callbackPeriod": 10,
    "timeout": "Infinity",
    "beta1": 0.9,
    "beta2": 0.999,
    "epsilon": 1e-8
  }
}