{
  "type": "NeuralNetwork",
  "sizes": [
    8,
    4,
    1
  ],
  "layers": [
    {
      "weights": [],
      "biases": []
    },
    {
      "weights": [
        [
          -2.0291850566864014,
          -0.979351282119751,
          1.3678703308105469,
          -1.763827919960022,
          -0.09820287674665451,
          0.053475502878427505,
          1.9767221212387085,
          -1.9208378791809082
        ],
        [
          4.773799896240234,
          4.861979961395264,
          -1.3005341291427612,
          4.175258159637451,
          -0.0338374525308609,
          -0.15742851793766022,
          -2.6447947025299072,
          0.569222092628479
        ],
        [
          -1.1619051694869995,
          -2.7389698028564453,
          0.4547049403190613,
          -4.24906063079834,
          -0.17641538381576538,
          -0.11792708188295364,
          2.5350253582000732,
          -0.2306971549987793
        ],
        [
          -11.508536338806152,
          -3.251554489135742,
          0.46117791533470154,
          -3.4716062545776367,
          -0.36411598324775696,
          -0.042572468519210815,
          -17.18714141845703,
          -8.149863243103027
        ]
      ],
      "biases": [
        1.8165948390960693,
        -9.471451759338379,
        8.957942962646484,
        3.445178985595703
      ]
    },
    {
      "weights": [
        [
          3.351799964904785,
          13.603652954101562,
          -9.269306182861328,
          -7.126951694488525
        ]
      ],
      "biases": [
        3.7351889610290527
      ]
    }
  ],
  "inputLookup": null,
  "inputLookupLength": 0,
  "outputLookup": null,
  "outputLookupLength": 0,
  "options": {
    "inputSize": 0,
    "outputSize": 0,
    "binaryThresh": 0.5
  },
  "trainOpts": {
    "activation": "sigmoid",
    "iterations": 20000,
    "errorThresh": 0.005,
    "log": true,
    "logPeriod": 1000,
    "leakyReluAlpha": 0.01,
    "learningRate": 0.1,
    "momentum": 0.1,
    "callbackPeriod": 10,
    "timeout": "Infinity",
    "beta1": 0.9,
    "beta2": 0.999,
    "epsilon": 1e-8
  }
}