{
  "type": "NeuralNetwork",
  "sizes": [
    8,
    4,
    1
  ],
  "layers": [
    {
      "weights": [],
      "biases": []
    },
    {
      "weights": [
        [
          -0.9797497987747192,
          -0.7083444595336914,
          1.3418269157409668,
          0.04112325236201286,
          0.10205988585948944,
          1.6900489330291748,
          -1.7927441596984863,
          3.2613775730133057
        ],
        [
          0.6382595896720886,
          0.04306695982813835,
          -0.6440327763557434,
          0.03271731734275818,
          -0.07206036895513535,
          -1.351131558418274,
          1.8724759817123413,
          -1.6606439352035522
        ],
        [
          0.1573045402765274,
          -0.055284854024648666,
          1.10703706741333,
          -0.496703177690506,
          -1.0456504821777344,
          -2.6566317081451416,
          2.82372784614563,
          -2.426574945449829
        ],
        [
          -0.11060035973787308,
          -0.08501695096492767,
          -1.4813880920410156,
          -0.1344454139471054,
          -0.3323976695537567,
          1.3162422180175781,
          0.5170084834098816,
          1.7824082374572754
        ]
      ],
      "biases": [
        -2.8707516193389893,
        2.5457780361175537,
        2.123178005218506,
        -1.9993724822998047
      ]
    },
    {
      "weights": [
        [
          -4.086713790893555,
          -0.8525671362876892,
          -7.610404014587402,
          8.707356452941895
        ]
      ],
      "biases": [
        -2.520225763320923
      ]
    }
  ],
  "inputLookup": null,
  "inputLookupLength": 0,
  "outputLookup": null,
  "outputLookupLength": 0,
  "options": {
    "inputSize": 0,
    "outputSize": 0,
    "binaryThresh": 0.5
  },
  "trainOpts": {
    "activation": "sigmoid",
    "iterations": 80000,
    "errorThresh": 0.005,
    "log": true,
    "logPeriod": 1000,
    "leakyReluAlpha": 0.01,
    "learningRate": 0.1,
    "momentum": 0.1,
    "callbackPeriod": 10,
    "timeout": "Infinity",
    "beta1": 0.9,
    "beta2": 0.999,
    "epsilon": 1e-8
  }
}