{
  "type": "NeuralNetwork",
  "sizes": [
    8,
    4,
    1
  ],
  "layers": [
    {
      "weights": [],
      "biases": []
    },
    {
      "weights": [
        [
          -2.0448832511901855,
          -12.587446212768555,
          1.5507053136825562,
          -8.164376258850098,
          -1.4899846315383911,
          -5.436188220977783,
          -2.9978840351104736,
          -2.913925886154175
        ],
        [
          -0.04018418490886688,
          0.09275096654891968,
          3.3877265453338623,
          -0.24014687538146973,
          -1.1964905261993408,
          -1.185164451599121,
          -12.781356811523438,
          12.380321502685547
        ],
        [
          0.860792875289917,
          -2.363535165786743,
          -13.993579864501953,
          19.03268051147461,
          2.031890630722046,
          1.9153715372085571,
          14.16896915435791,
          4.531998634338379
        ],
        [
          1.255872130393982,
          -0.9278600215911865,
          -10.554705619812012,
          6.015920162200928,
          -4.951211452484131,
          -12.324256896972656,
          7.6253814697265625,
          -10.964333534240723
        ]
      ],
      "biases": [
        31.02739143371582,
        -12.756331443786621,
        -1.286994457244873,
        10.351632118225098
      ]
    },
    {
      "weights": [
        [
          2.782470703125,
          3.0048067569732666,
          -1.9665416479110718,
          -1.0439180135726929
        ]
      ],
      "biases": [
        -0.1883462518453598
      ]
    }
  ],
  "inputLookup": null,
  "inputLookupLength": 0,
  "outputLookup": null,
  "outputLookupLength": 0,
  "options": {
    "inputSize": 0,
    "outputSize": 0,
    "binaryThresh": 0.5
  },
  "trainOpts": {
    "activation": "sigmoid",
    "iterations": 99999,
    "errorThresh": 0.005,
    "log": true,
    "logPeriod": 1000,
    "leakyReluAlpha": 0.01,
    "learningRate": 0.01,
    "momentum": 0.1,
    "callbackPeriod": 10,
    "timeout": "Infinity",
    "beta1": 0.9,
    "beta2": 0.999,
    "epsilon": 1e-8
  }
}