{
  "type": "NeuralNetwork",
  "sizes": [
    8,
    4,
    1
  ],
  "layers": [
    {
      "weights": [],
      "biases": []
    },
    {
      "weights": [
        [
          -0.6719041466712952,
          0.3218610882759094,
          -0.21402058005332947,
          2.165517568588257,
          -1.0150586366653442,
          1.0856897830963135,
          2.8789117336273193,
          1.9797108173370361
        ],
        [
          3.194882869720459,
          2.2611138820648193,
          0.12758740782737732,
          0.8561663031578064,
          1.1846129894256592,
          0.19416764378547668,
          3.8752665519714355,
          -3.463618755340576
        ],
        [
          -0.21532733738422394,
          -0.2869027554988861,
          -0.86128169298172,
          1.2665141820907593,
          -0.1189725250005722,
          1.7417198419570923,
          0.6922897100448608,
          3.1910202503204346
        ],
        [
          1.1994438171386719,
          -4.012736797332764,
          0.36342954635620117,
          -1.147153615951538,
          2.03126859664917,
          -1.167452096939087,
          7.987868785858154,
          -0.30907341837882996
        ]
      ],
      "biases": [
        -1.3691068887710571,
        -0.14011022448539734,
        -2.8027520179748535,
        -0.8253191709518433
      ]
    },
    {
      "weights": [
        [
          -3.7227742671966553,
          -3.8498706817626953,
          10.598954200744629,
          -3.8630099296569824
        ]
      ],
      "biases": [
        -1.3594900369644165
      ]
    }
  ],
  "inputLookup": null,
  "inputLookupLength": 0,
  "outputLookup": null,
  "outputLookupLength": 0,
  "options": {
    "inputSize": 0,
    "outputSize": 0,
    "binaryThresh": 0.5
  },
  "trainOpts": {
    "activation": "sigmoid",
    "iterations": 80000,
    "errorThresh": 0.005,
    "log": true,
    "logPeriod": 1000,
    "leakyReluAlpha": 0.01,
    "learningRate": 0.1,
    "momentum": 0.1,
    "callbackPeriod": 10,
    "timeout": "Infinity",
    "beta1": 0.9,
    "beta2": 0.999,
    "epsilon": 1e-8
  }
}