{
  "type": "NeuralNetwork",
  "sizes": [
    8,
    4,
    1
  ],
  "layers": [
    {
      "weights": [],
      "biases": []
    },
    {
      "weights": [
        [
          9.254154205322266,
          3.226205825805664,
          -0.10864460468292236,
          -0.7786291241645813,
          1.0749684572219849,
          0.7949228882789612,
          2.1225788593292236,
          1.516159176826477
        ],
        [
          -2.2315673828125,
          -0.4349869191646576,
          -0.9913473129272461,
          5.486702919006348,
          -2.222933292388916,
          6.3236212730407715,
          -2.160618305206299,
          4.335207462310791
        ],
        [
          3.649057626724243,
          0.7811000347137451,
          0.18399403989315033,
          0.8720407485961914,
          0.4192882180213928,
          -1.1314951181411743,
          1.2625271081924438,
          -1.783936619758606
        ],
        [
          -3.9054038524627686,
          -3.3554959297180176,
          1.6739517450332642,
          2.4722161293029785,
          -0.12326213717460632,
          -1.036186695098877,
          2.8382656574249268,
          -2.441895008087158
        ]
      ],
      "biases": [
        -3.4684717655181885,
        0.47295334935188293,
        -2.953230619430542,
        3.0617027282714844
      ]
    },
    {
      "weights": [
        [
          3.192861557006836,
          1.744760274887085,
          -0.8989359736442566,
          -3.640486240386963
        ]
      ],
      "biases": [
        -2.5797712802886963
      ]
    }
  ],
  "inputLookup": null,
  "inputLookupLength": 0,
  "outputLookup": null,
  "outputLookupLength": 0,
  "options": {
    "inputSize": 0,
    "outputSize": 0,
    "binaryThresh": 0.5
  },
  "trainOpts": {
    "activation": "sigmoid",
    "iterations": 80000,
    "errorThresh": 0.005,
    "log": true,
    "logPeriod": 1000,
    "leakyReluAlpha": 0.01,
    "learningRate": 0.1,
    "momentum": 0.1,
    "callbackPeriod": 10,
    "timeout": "Infinity",
    "beta1": 0.9,
    "beta2": 0.999,
    "epsilon": 1e-8
  }
}